digraph Tree {
node [shape=box] ;
0 [label="Minute <= 0.5\ngini = 0.9028\nsamples = 439024\nvalue = [801, 38250, 199, 142, 18430, 2117, 1133, 27037, 2166, 601, 124\n268, 5376, 8178, 89, 1114, 87652, 964, 586, 13155, 46062\n63002, 11, 3651, 1563, 11413, 938, 5059, 2156, 77, 2269, 260\n15657, 3, 3667, 22566, 26750, 21232, 4306]"] ;
1 [label="Hour <= 16.5\ngini = 0.8685\nsamples = 134443\nvalue = [153, 8648, 132, 31, 8350, 271, 45, 1923, 149, 324, 47, 76\n2260, 3669, 21, 407, 38347, 62, 72, 5980, 15806, 10225, 6\n420, 104, 2021, 378, 1384, 867, 42, 365, 66, 4388, 0, 588\n9532, 15109, 1722, 453]"] ;
0 -> 1 [labeldistance=2.5, labelangle=45, headlabel="True"] ;
2 [label="pdd_SOUTHERN <= 0.5\ngini = 0.8861\nsamples = 77649\nvalue = [89, 5569, 117, 17, 4795, 212, 30, 1198, 81, 285, 33, 53\n1919, 2768, 16, 234, 19141, 33, 47, 4086, 10551, 6755, 3, 193\n80, 1173, 219, 911, 571, 28, 236, 40, 3101, 0, 412, 4432\n6778, 1151, 292]"] ;
1 -> 2 ;
3 [label="pdd_CENTRAL <= 0.5\ngini = 0.8923\nsamples = 64403\nvalue = [77, 4710, 96, 15, 4297, 190, 26, 989, 64, 224, 31, 49, 1595\n2285, 12, 201, 14872, 28, 28, 3584, 8121, 5827, 3, 178, 71\n953, 206, 802, 454, 25, 189, 36, 2643, 0, 361, 3864, 6195\n842, 260]"] ;
2 -> 3 ;
4 [label="gini = 0.8985\nsamples = 55710\nvalue = [67, 4208, 80, 14, 3817, 151, 23, 933, 44, 174, 26, 44, 1399\n1950, 9, 181, 11860, 25, 23, 3347, 6667, 5266, 3, 148, 65\n861, 198, 715, 410, 24, 167, 29, 2359, 0, 301, 3448, 5678\n750, 246]"] ;
3 -> 4 ;
5 [label="gini = 0.8313\nsamples = 8693\nvalue = [10, 502, 16, 1, 480, 39, 3, 56, 20, 50, 5, 5, 196, 335, 3\n20, 3012, 3, 5, 237, 1454, 561, 0, 30, 6, 92, 8, 87, 44, 1\n22, 7, 284, 0, 60, 416, 517, 92, 14]"] ;
3 -> 5 ;
6 [label="Year <= 2011.5\ngini = 0.8423\nsamples = 13246\nvalue = [12, 859, 21, 2, 498, 22, 4, 209, 17, 61, 2, 4, 324, 483, 4\n33, 4269, 5, 19, 502, 2430, 928, 0, 15, 9, 220, 13, 109\n117, 3, 47, 4, 458, 0, 51, 568, 583, 309, 32]"] ;
2 -> 6 ;
7 [label="gini = 0.8524\nsamples = 9708\nvalue = [8, 627, 20, 1, 371, 20, 4, 170, 12, 51, 2, 4, 293, 406, 4\n24, 2892, 4, 18, 307, 1885, 693, 0, 11, 6, 149, 13, 61, 84\n3, 36, 2, 359, 0, 38, 400, 467, 241, 22]"] ;
6 -> 7 ;
8 [label="gini = 0.8059\nsamples = 3538\nvalue = [4, 232, 1, 1, 127, 2, 0, 39, 5, 10, 0, 0, 31, 77, 0, 9\n1377, 1, 1, 195, 545, 235, 0, 4, 3, 71, 0, 48, 33, 0, 11\n2, 99, 0, 13, 168, 116, 68, 10]"] ;
6 -> 8 ;
9 [label="Year <= 2005.5\ngini = 0.8344\nsamples = 56794\nvalue = [64, 3079, 15, 14, 3555, 59, 15, 725, 68, 39, 14, 23, 341\n901, 5, 173, 19206, 29, 25, 1894, 5255, 3470, 3, 227, 24\n848, 159, 473, 296, 14, 129, 26, 1287, 0, 176, 5100, 8331\n571, 161]"] ;
1 -> 9 ;
10 [label="pdd_SOUTHERN <= 0.5\ngini = 0.8354\nsamples = 15857\nvalue = [19, 796, 7, 3, 1009, 21, 1, 214, 16, 12, 4, 11, 112, 243\n2, 39, 4520, 9, 4, 421, 1414, 910, 2, 66, 0, 194, 57, 76\n50, 4, 23, 3, 330, 0, 47, 1198, 3816, 169, 35]"] ;
9 -> 10 ;
11 [label="gini = 0.8347\nsamples = 13607\nvalue = [17, 703, 5, 3, 889, 17, 0, 171, 13, 7, 3, 10, 100, 199, 2\n33, 3639, 6, 3, 376, 1054, 813, 2, 66, 0, 157, 51, 65, 45\n4, 21, 3, 282, 0, 36, 1074, 3576, 130, 32]"] ;
10 -> 11 ;
12 [label="gini = 0.798\nsamples = 2250\nvalue = [2, 93, 2, 0, 120, 4, 1, 43, 3, 5, 1, 1, 12, 44, 0, 6\n881, 3, 1, 45, 360, 97, 0, 0, 0, 37, 6, 11, 5, 0, 2, 0\n48, 0, 11, 124, 240, 39, 3]"] ;
10 -> 12 ;
13 [label="pdd_SOUTHERN <= 0.5\ngini = 0.8275\nsamples = 40937\nvalue = [45, 2283, 8, 11, 2546, 38, 14, 511, 52, 27, 10, 12, 229\n658, 3, 134, 14686, 20, 21, 1473, 3841, 2560, 1, 161, 24\n654, 102, 397, 246, 10, 106, 23, 957, 0, 129, 3902, 4515\n402, 126]"] ;
9 -> 13 ;
14 [label="gini = 0.839\nsamples = 33763\nvalue = [40, 1947, 5, 10, 2170, 34, 13, 435, 43, 23, 10, 10, 186\n524, 3, 120, 11356, 15, 9, 1254, 2943, 2199, 1, 152, 21, 532\n93, 366, 198, 10, 88, 22, 808, 0, 103, 3400, 4199, 314, 107]"] ;
13 -> 14 ;
15 [label="gini = 0.7522\nsamples = 7174\nvalue = [5, 336, 3, 1, 376, 4, 1, 76, 9, 4, 0, 2, 43, 134, 0, 14\n3330, 5, 12, 219, 898, 361, 0, 9, 3, 122, 9, 31, 48, 0, 18\n1, 149, 0, 26, 502, 316, 88, 19]"] ;
13 -> 15 ;
16 [label="pdd_TENDERLOIN <= 0.5\ngini = 0.9052\nsamples = 304581\nvalue = [648, 29602, 67, 111, 10080, 1846, 1088, 25114, 2017, 277, 77\n192, 3116, 4509, 68, 707, 49305, 902, 514, 7175, 30256, 52777\n5, 3231, 1459, 9392, 560, 3675, 1289, 35, 1904, 194, 11269, 3\n3079, 13034, 11641, 19510, 3853]"] ;
0 -> 16 [labeldistance=2.5, labelangle=-45, headlabel="False"] ;
17 [label="Minute <= 30.5\ngini = 0.905\nsamples = 270658\nvalue = [624, 26596, 63, 103, 9594, 1465, 1040, 16834, 1820, 240, 74\n180, 2900, 4130, 62, 631, 45890, 820, 413, 6926, 27540, 46505\n5, 2839, 1389, 8531, 556, 3414, 1197, 35, 1763, 189, 10364, 3\n2527, 12447, 11381, 16061, 3507]"] ;
16 -> 17 ;
18 [label="Minute <= 29.5\ngini = 0.9036\nsamples = 169426\nvalue = [389, 16092, 49, 61, 6761, 834, 556, 8994, 969, 194, 54, 105\n2036, 3049, 41, 422, 32514, 452, 243, 4831, 17251, 26156, 2\n1629, 733, 5030, 361, 2119, 886, 28, 1011, 102, 6340, 1, 1488\n8358, 8830, 8578, 1877]"] ;
17 -> 18 ;
19 [label="gini = 0.9046\nsamples = 111006\nvalue = [289, 11165, 42, 44, 3176, 660, 510, 7896, 854, 159, 34, 80\n1589, 2022, 32, 255, 15545, 397, 192, 2242, 11356, 21585, 1\n1272, 650, 3668, 171, 1427, 555, 16, 819, 76, 4535, 1, 1160\n4746, 2746, 7466, 1573]"] ;
18 -> 19 ;
20 [label="gini = 0.8689\nsamples = 58420\nvalue = [100, 4927, 7, 17, 3585, 174, 46, 1098, 115, 35, 20, 25, 447\n1027, 9, 167, 16969, 55, 51, 2589, 5895, 4571, 1, 357, 83\n1362, 190, 692, 331, 12, 192, 26, 1805, 0, 328, 3612, 6084\n1112, 304]"] ;
18 -> 20 ;
21 [label="Year <= 2011.5\ngini = 0.9022\nsamples = 101232\nvalue = [235, 10504, 14, 42, 2833, 631, 484, 7840, 851, 46, 20, 75\n864, 1081, 21, 209, 13376, 368, 170, 2095, 10289, 20349, 3\n1210, 656, 3501, 195, 1295, 311, 7, 752, 87, 4024, 2, 1039\n4089, 2551, 7483, 1630]"] ;
17 -> 21 ;
22 [label="gini = 0.9024\nsamples = 71167\nvalue = [171, 7437, 11, 26, 1959, 508, 337, 6159, 600, 40, 18, 53\n689, 722, 16, 142, 8264, 289, 154, 1498, 6242, 15047, 2, 1070\n518, 2540, 138, 884, 223, 5, 466, 67, 2687, 1, 734, 2877\n2070, 5375, 1128]"] ;
21 -> 22 ;
23 [label="gini = 0.8963\nsamples = 30065\nvalue = [64, 3067, 3, 16, 874, 123, 147, 1681, 251, 6, 2, 22, 175\n359, 5, 67, 5112, 79, 16, 597, 4047, 5302, 1, 140, 138, 961\n57, 411, 88, 2, 286, 20, 1337, 1, 305, 1212, 481, 2108, 502]"] ;
21 -> 23 ;
24 [label="Year <= 2010.5\ngini = 0.8686\nsamples = 33923\nvalue = [24, 3006, 4, 8, 486, 381, 48, 8280, 197, 37, 3, 12, 216\n379, 6, 76, 3415, 82, 101, 249, 2716, 6272, 0, 392, 70, 861\n4, 261, 92, 0, 141, 5, 905, 0, 552, 587, 260, 3449, 346]"] ;
16 -> 24 ;
25 [label="Hour <= 7.5\ngini = 0.8506\nsamples = 23026\nvalue = [13, 1968, 4, 6, 295, 241, 28, 6454, 116, 23, 1, 9, 168, 221\n5, 37, 2055, 50, 54, 150, 1419, 4550, 0, 340, 48, 525, 1\n150, 57, 0, 78, 3, 504, 0, 354, 361, 191, 2334, 213]"] ;
24 -> 25 ;
26 [label="gini = 0.8913\nsamples = 4062\nvalue = [3, 483, 0, 1, 67, 144, 14, 697, 35, 4, 1, 1, 22, 46, 0\n14, 206, 5, 22, 39, 288, 831, 0, 53, 16, 142, 1, 35, 20, 0\n12, 1, 128, 0, 157, 89, 50, 385, 50]"] ;
25 -> 26 ;
27 [label="gini = 0.8377\nsamples = 18964\nvalue = [10, 1485, 4, 5, 228, 97, 14, 5757, 81, 19, 0, 8, 146, 175\n5, 23, 1849, 45, 32, 111, 1131, 3719, 0, 287, 32, 383, 0\n115, 37, 0, 66, 2, 376, 0, 197, 272, 141, 1949, 163]"] ;
25 -> 27 ;
28 [label="Hour <= 8.5\ngini = 0.8933\nsamples = 10897\nvalue = [11, 1038, 0, 2, 191, 140, 20, 1826, 81, 14, 2, 3, 48, 158\n1, 39, 1360, 32, 47, 99, 1297, 1722, 0, 52, 22, 336, 3, 111\n35, 0, 63, 2, 401, 0, 198, 226, 69, 1115, 133]"] ;
24 -> 28 ;
29 [label="gini = 0.9156\nsamples = 2569\nvalue = [4, 292, 0, 2, 49, 124, 2, 195, 29, 3, 1, 1, 11, 40, 1, 13\n206, 9, 43, 30, 339, 379, 0, 4, 8, 130, 0, 30, 18, 0, 17\n1, 90, 0, 139, 63, 20, 240, 36]"] ;
28 -> 29 ;
30 [label="gini = 0.8807\nsamples = 8328\nvalue = [7, 746, 0, 0, 142, 16, 18, 1631, 52, 11, 1, 2, 37, 118, 0\n26, 1154, 23, 4, 69, 958, 1343, 0, 48, 14, 206, 3, 81, 17\n0, 46, 1, 311, 0, 59, 163, 49, 875, 97]"] ;
28 -> 30 ;
}